net 
{ 
}
node x0 
{
  states = ( "0" "1" );
}
node x1 
{
  states = ( "0" "1" );
}
node x2 
{
  states = ( "0" "1" );
}
node x3 
{
  states = ( "0" "1" );
}
node x4 
{
  states = ( "0" "1" );
}
node x5 
{
  states = ( "0" "1" );
}
node x6 
{
  states = ( "0" "1" );
}
node x7 
{
  states = ( "0" "1" );
}
node x8 
{
  states = ( "0" "1" );
}
node x9 
{
  states = ( "0" "1" );
}
node xid 
{
  states = ( "0" "1" );
}
node x11 
{
  states = ( "0" "1" );
}
node x12 
{
  states = ( "0" "1" );
}
node x13 
{
  states = ( "0" "1" );
}
node x14 
{
  states = ( "0" "1" );
}
node x15 
{
  states = ( "0" "1" );
}
potential ( x0 | x1 x2 x6 ) 
{
  data = ((((0.97374329 0.02625671)(0.91024431 0.08975569))((0.8515924 0.1484076)(0.5844192 0.4155808)))(((0.90587659 0.09412341)(0.762571 0.237429))((0.656834 0.343166)(0.3131876 0.6868124)))) ;
}
potential ( x1 | x6 x11 x12 ) 
{
  data = ((((0.94388016 0.05611984)(0.8903045 0.1096955))((0.8994842 0.1005158)(0.7178391 0.2821609)))(((0.6456328 0.3543672)(0.5058737 0.4941263))((0.5822081 0.4177919)(0.2678467 0.7321533)))) ;
}
potential ( x2 | x1 x3 x5 x6 ) 
{
  data = (((((0.98172385 0.01827615)(0.8536842 0.1463158))((0.8566174 0.1433826)(0.6841639 0.3158361)))(((0.90711334 0.09288666)(0.7315308 0.2684692))((0.7934796 0.2065204)(0.5703446 0.4296554))))((((0.83921 0.16079)(0.692 0.308))((0.6260946 0.3739054)(0.2658294 0.7341706)))(((0.7462653 0.2537347)(0.4151943 0.5848057))((0.513214 0.486786)(0.2265061 0.7734939))))) ;
}
potential ( x3 ) 
{
  data = ( 0.5076937 0.4923063 );
}
potential ( x4 | x3 ) 
{
  data = ((0.6651147 0.3348853)(0.2149313 0.7850687)) ;
}
potential ( x5 | x3 x4 x11 ) 
{
  data = ((((0.92145573 0.07854427)(0.6778984 0.3221016))((0.7947764 0.2052236)(0.5484825 0.4515175)))(((0.4205531 0.5794469)(0.2984733 0.7015267))((0.2591345 0.7408655)(0.1116252 0.8883748)))) ;
}
potential ( x6 | x5 x12 ) 
{
  data = (((0.97714149 0.02285851)(0.8266358 0.1733642))((0.6839172 0.3160828)(0.1805738 0.8194262))) ;
}
potential ( x7 | x3 x5 x6 x14 ) 
{
  data = (((((0.96358666 0.03641334)(0.867018 0.132982))((0.4505834 0.5494166)(0.2706577 0.7293423)))(((0.7099164 0.2900836)(0.5523654 0.4476346))((0.183063 0.816937)(0.05759633 0.94240367))))((((0.8661615 0.1338385)(0.7170774 0.2829226))((0.4557312 0.5442688)(0.2502787 0.7497213)))(((0.6536586 0.3463414)(0.4643704 0.5356296))((0.1760438 0.8239562)(0.04813393 0.95186607))))) ;
}
potential ( x8 | x6 x7 x9 x12 ) 
{
  data = (((((9.999936e-01 6.414121e-06)(0.999765148 0.000234852))((0.97632085 0.02367915)(0.92476868 0.07523132)))(((0.98727833 0.01272167)(0.996551724 0.003448276))((0.8298937 0.1701063)(0.6190255 0.3809745))))((((0.9992907801 0.0007092199)(0.996551724 0.003448276))((0.8507241 0.1492759)(0.6421203 0.3578797)))(((0.93243243 0.06756757)(0.6913876 0.3086124))((0.3895018 0.6104982)(0.1102503 0.8897497))))) ;
}
potential ( x9 | x3 x4 x5 x7 x11 ) 
{
  data = ((((((0.7507234 0.2492766)(0.5125718 0.4874282))((0.09638972 0.90361028)(0.0003469813 0.9996530187)))(((0.262963 0.737037)(0.204176 0.795824))((0.06071006 0.93928994)(0.0237567 0.9762433))))((((0.487109 0.512891)(0.3210796 0.6789204))((0.07912043 0.92087957)(0.02765835 0.97234165)))(((0.2447233 0.7552767)(0.1282647 0.8717353))((0.06262204 0.93737796)(0.01295922 0.98704078)))))(((((0.4743009 0.5256991)(0.2857621 0.7142379))((0.1178812 0.8821188)(0.0005035247 0.9994964753)))(((0.30584 0.69416)(0.1724726 0.8275274))((0.08472975 0.91527025)(0.0263807 0.9736193))))((((0.303813 0.696187)(0.2089824 0.7910176))((0.1606248 0.8393752)(0.006426735 0.993573265)))(((0.2070619 0.7929381)(0.1029206 0.8970794))((0.02943339 0.97056661)(0.006460756 0.993539244)))))) ;
}
potential ( xid | x4 x13 x14 ) 
{
  data = ((((0.96866073 0.03133927)(0.6982161 0.3017839))((0.7752761 0.2247239)(0.2264669 0.7735331)))(((0.8860954 0.1139046)(0.6409503 0.3590497))((0.7239141 0.2760859)(0.3395328 0.6604672)))) ;
}
potential ( x11 | x4 xid x13 x14 ) 
{
  data = (((((0.8640589 0.1359411)(0.5 0.5))((0.5789041 0.4210959)(0.3136067 0.6863933)))(((0.4203139 0.5796861)(0.2635468 0.7364532))((0.2429112 0.7570888)(0.03506139 0.96493861))))((((0.6442749 0.3557251)(0.4333611 0.5666389))((0.5490296 0.4509704)(0.3315172 0.6684828)))(((0.2871397 0.7128603)(0.1431227 0.8568773))((0.2079655 0.7920345)(0.0470371 0.9529629))))) ;
}
potential ( x12 | xid x11 x14 ) 
{
  data = ((((0.97839645 0.02160355)(0.90965486 0.09034514))((0.873841 0.126159)(0.6494964 0.3505036)))(((0.91094804 0.08905196)(0.7684792 0.2315208))((0.7213553 0.2786447)(0.2061801 0.7938199)))) ;
}
potential ( x13 | x4 ) 
{
  data = ((0.93823591 0.06176409)(0.3282716 0.6717284)) ;
}
potential ( x14 | x4 x13 ) 
{
  data = (((0.98126833 0.01873167)(0.3319233 0.6680767))((0.92080338 0.07919662)(0.3772575 0.6227425))) ;
}
potential ( x15 | x0 x6 x12 x14 ) 
{
  data = (((((0.996043696 0.003956304)(0.98869416 0.01130584))((0.96621029 0.03378971)(0.6896296 0.3103704)))(((0.97266264 0.02733736)(0.91701994 0.08298006))((0.8515695 0.1484305)(0.5280509 0.4719491))))((((0.9876401 0.0123599)(0.92818912 0.07181088))((0.891231 0.108769)(0.5832466 0.4167534)))(((0.93439558 0.06560442)(0.8331756 0.1668244))((0.7860511 0.2139489)(0.2584988 0.7415012))))) ;
}
