net 
{
    node_size = (76 36);
}

node f1
{
    label = "f1";
    position = (46 1320);
    states = ("State0"  "State1"  "State2"  "State3"  "State4" 
     "State5");
}

node f8
{
    label = "f8";
    position = (46 1256);
    states = ("State0"  "State1"  "State2"  "State3"  "State4" 
     "State5");
}

node f0
{
    label = "f0";
    position = (142 1320);
    states = ("State0"  "State1"  "State2"  "State3"  "State4" 
     "State5");
}

node f2
{
    label = "f2";
    position = (238 1320);
    states = ("State0"  "State1"  "State2"  "State3"  "State4" 
     "State5");
}

node f3
{
    label = "f3";
    position = (238 1256);
    states = ("State0"  "State1"  "State2"  "State3"  "State4" 
     "State5");
}

node f4
{
    label = "f4";
    position = (238 1192);
    states = ("State0"  "State1"  "State2"  "State3"  "State4" 
     "State5");
}

node f5
{
    label = "f5";
    position = (238 1128);
    states = ("State0"  "State1"  "State2"  "State3"  "State4" 
     "State5");
}

node f6
{
    label = "f6";
    position = (238 1064);
    states = ("State0"  "State1"  "State2"  "State3"  "State4" 
     "State5");
}

node f7
{
    label = "f7";
    position = (238 1000);
    states = ("State0"  "State1"  "State2"  "State3"  "State4" 
     "State5");
}

node f9
{
    label = "f9";
    position = (238 936);
    states = ("State0"  "State1"  "State2"  "State3"  "State4" 
     "State5");
}

node f10
{
    label = "f10";
    position = (238 872);
    states = ("State0"  "State1"  "State2"  "State3"  "State4" 
     "State5");
}

node f11
{
    label = "f11";
    position = (238 808);
    states = ("State0"  "State1"  "State2"  "State3"  "State4" 
     "State5");
}

node f12
{
    label = "f12";
    position = (238 744);
    states = ("State0"  "State1"  "State2"  "State3"  "State4" 
     "State5");
}

node f13
{
    label = "f13";
    position = (238 680);
    states = ("State0"  "State1"  "State2"  "State3"  "State4" 
     "State5");
}

node f14
{
    label = "f14";
    position = (238 616);
    states = ("State0"  "State1"  "State3"  "State4"  "State5");
}

node f15
{
    label = "f15";
    position = (238 552);
    states = ("State0"  "State1"  "State2"  "State3"  "State4" 
     "State5");
}

node f16
{
    label = "f16";
    position = (238 488);
    states = ("State0"  "State1"  "State2"  "State3"  "State4" 
     "State5");
}

node f17
{
    label = "f17";
    position = (238 424);
    states = ("State0"  "State1"  "State2"  "State3"  "State4" 
     "State5");
}

node f18
{
    label = "f18";
    position = (334 1320);
    states = ("State0"  "State1"  "State2"  "State3"  "State4" 
     "State5");
}

node f19
{
    label = "f19";
    position = (238 360);
    states = ("State0"  "State1"  "State2"  "State3"  "State4" 
     "State5");
}

node f20
{
    label = "f20";
    position = (238 296);
    states = ("State0"  "State1"  "State2"  "State3"  "State4" 
     "State5");
}

node f21
{
    label = "f21";
    position = (238 232);
    states = ("State0"  "State1"  "State2"  "State3"  "State4" 
     "State5");
}

node f22
{
    label = "f22";
    position = (238 168);
    states = ("State0"  "State1"  "State2"  "State3"  "State4" 
     "State5");
}

node f23
{
    label = "f23";
    position = (238 104);
    states = ("State0"  "State1"  "State2"  "State3"  "State4" 
     "State5");
}

node f24
{
    label = "f24";
    position = (238 40);
    states = ("State0"  "State1"  "State2"  "State3"  "State4" 
     "State5");
}

node f25
{
    label = "f25";
    position = (238 -24);
    states = ("State0"  "State1"  "State2"  "State3"  "State4" 
     "State5");
}

potential (f1 |)
{
    data = (0.17900000 0.12100000 0.05400000 0.06800000 0.13400000 
        0.44400000);
}

potential (f8 |)
{
    data = (0.05800000 0.25000000 0.03500000 0.32400000 0.23500000 
        0.09800000);
}

potential (f0 | f1 f8)
{
    data = (((0.19871795 0.27564103 0.50641026 0.00641026 0.00641026 
        0.00641026)
        (0.78769841 0.12103175 0.08531746 0.00198413 0.00198413 
        0.00198413)
        (0.91666667 0.01666667 0.01666667 0.01666667 0.01666667 
        0.01666667)
        (0.16666667 0.16666667 0.16666667 0.16666667 0.16666667 
        0.16666667)
        (0.08333333 0.08333333 0.08333333 0.08333333 0.08333333 
        0.58333333)
        (0.00268817 0.00268817 0.98655914 0.00268817 0.00268817 
        0.00268817))
        ((0.28787879 0.19696970 0.46969697 0.01515152 0.01515152 
        0.01515152)
        (0.58658009 0.37878788 0.02813853 0.00216450 0.00216450 
        0.00216450)
        (0.68518519 0.24074074 0.01851852 0.01851852 0.01851852 
        0.01851852)
        (0.16666667 0.16666667 0.16666667 0.16666667 0.16666667 
        0.16666667)
        (0.16666667 0.16666667 0.16666667 0.16666667 0.16666667 
        0.16666667)
        (0.00595238 0.11309524 0.86309524 0.00595238 0.00595238 
        0.00595238))
        ((0.02777778 0.86111111 0.02777778 0.02777778 0.02777778 
        0.02777778)
        (0.52916667 0.45416667 0.00416667 0.00416667 0.00416667 
        0.00416667)
        (0.63333333 0.23333333 0.03333333 0.03333333 0.03333333 
        0.03333333)
        (0.16666667 0.16666667 0.16666667 0.16666667 0.16666667 
        0.16666667)
        (0.16666667 0.16666667 0.16666667 0.16666667 0.16666667 
        0.16666667)
        (0.02380952 0.45238095 0.45238095 0.02380952 0.02380952 
        0.02380952))
        ((0.00925926 0.95370370 0.00925926 0.00925926 0.00925926 
        0.00925926)
        (0.04609929 0.93971631 0.00354610 0.00354610 0.00354610 
        0.00354610)
        (0.58333333 0.08333333 0.08333333 0.08333333 0.08333333 
        0.08333333)
        (0.05555556 0.05555556 0.05555556 0.05555556 0.05555556 
        0.72222222)
        (0.08333333 0.08333333 0.08333333 0.58333333 0.08333333 
        0.08333333)
        (0.08333333 0.08333333 0.58333333 0.08333333 0.08333333 
        0.08333333))
        ((0.16666667 0.16666667 0.16666667 0.16666667 0.16666667 
        0.16666667)
        (0.03333333 0.63333333 0.03333333 0.03333333 0.23333333 
        0.03333333)
        (0.05555556 0.05555556 0.05555556 0.72222222 0.05555556 
        0.05555556)
        (0.00231481 0.00231481 0.00231481 0.15509259 0.57175926 
        0.26620370)
        (0.00292398 0.00292398 0.00292398 0.24853801 0.40643275 
        0.33625731)
        (0.08333333 0.08333333 0.58333333 0.08333333 0.08333333 
        0.08333333))
        ((0.08333333 0.08333333 0.58333333 0.08333333 0.08333333 
        0.08333333)
        (0.05555556 0.05555556 0.05555556 0.38888889 0.05555556 
        0.38888889)
        (0.01388889 0.01388889 0.01388889 0.34722222 0.18055556 
        0.43055556)
        (0.00066138 0.00066138 0.00066138 0.29431217 0.34193122 
        0.36177249)
        (0.00093633 0.00093633 0.00093633 0.41666667 0.23689139 
        0.34363296)
        (0.05555556 0.05555556 0.72222222 0.05555556 0.05555556 
        0.05555556)));
}

potential (f2 | f0)
{
    data = ((0.57510288 0.20473251 0.01337449 0.00102881 0.18004115 
        0.02572016)
        (0.52528736 0.15287356 0.01494253 0.00114943 0.18735632 
        0.11839080)
        (0.42286501 0.15840220 0.00964187 0.00137741 0.29889807 
        0.10881543)
        (0.30939227 0.14364641 0.03867403 0.01104972 0.22099448 
        0.27624309)
        (0.24615385 0.12820513 0.04615385 0.02051282 0.28205128 
        0.27692308)
        (0.26130653 0.26633166 0.19095477 0.12060302 0.06532663 
        0.09547739));
}

potential (f3 | f0)
{
    data = ((0.39609053 0.02572016 0.05658436 0.00102881 0.51954733 
        0.00102881)
        (0.33218391 0.01494253 0.02183908 0.00114943 0.58735632 
        0.04252874)
        (0.73691460 0.09228650 0.00137741 0.00137741 0.16666667 
        0.00137741)
        (0.33149171 0.08287293 0.19889503 0.19889503 0.14917127 
        0.03867403)
        (0.29230769 0.08205128 0.22564103 0.25641026 0.12307692 
        0.02051282)
        (0.29648241 0.07537688 0.14572864 0.14572864 0.28140704 
        0.05527638));
}

potential (f4 | f0)
{
    data = ((0.09979424 0.72942387 0.14300412 0.01954733 0.00720165 
        0.00102881)
        (0.01494253 0.42183908 0.38735632 0.11839080 0.05632184 
        0.00114943)
        (0.38154270 0.53030303 0.08402204 0.00137741 0.00137741 
        0.00137741)
        (0.29212454 0.05586081 0.00091575 0.12728938 0.40750916 
        0.11630037)
        (0.22534014 0.55697279 0.12840136 0.06207483 0.02636054 
        0.00085034)
        (0.01005025 0.01507538 0.00502513 0.07035176 0.03015075 
        0.86934673));
}

potential (f5 | f0)
{
    data = ((0.00720165 0.05658436 0.47633745 0.45164609 0.00102881 
        0.00720165)
        (0.02183908 0.27011494 0.55287356 0.15287356 0.00114943 
        0.00114943)
        (0.46666667 0.32500000 0.18333333 0.00833333 0.00833333 
        0.00833333)
        (0.00091575 0.00091575 0.00091575 0.00091575 0.11080586 
        0.88553114)
        (0.00595238 0.00085034 0.00085034 0.00085034 0.10799320 
        0.88350340)
        (0.00083333 0.00583333 0.00083333 0.01083333 0.35083333 
        0.63083333));
}

potential (f6 | f0)
{
    data = ((0.57510288 0.32201646 0.05041152 0.01954733 0.00102881 
        0.03189300)
        (0.00804598 0.20114943 0.16666667 0.54597701 0.07701149 
        0.00114943)
        (0.30716253 0.41460055 0.13360882 0.14187328 0.00137741 
        0.00137741)
        (0.10497238 0.30939227 0.06077348 0.22651934 0.07182320 
        0.22651934)
        (0.08717949 0.22564103 0.14871795 0.33846154 0.12820513 
        0.07179487)
        (0.37185930 0.20603015 0.06030151 0.16582915 0.06030151 
        0.13567839));
}

potential (f7 | f0)
{
    data = ((0.06211180 0.04968944 0.61490683 0.07453416 0.09937888 
        0.09937888)
        (0.02873563 0.00114943 0.00804598 0.01494253 0.29080460 
        0.65632184)
        (0.20000000 0.01666667 0.25000000 0.22500000 0.13333333 
        0.17500000)
        (0.03314917 0.02209945 0.02209945 0.01657459 0.11602210 
        0.79005525)
        (0.06153846 0.01538462 0.05641026 0.01538462 0.18974359 
        0.66153846)
        (0.12060302 0.04020101 0.05527638 0.02010050 0.05025126 
        0.71356784));
}

potential (f9 | f0)
{
    data = ((0.50102881 0.29732510 0.01954733 0.00102881 0.18004115 
        0.00102881)
        (0.18045977 0.48390805 0.24252874 0.00804598 0.08390805 
        0.00114943)
        (0.05000000 0.39166667 0.43333333 0.10000000 0.00833333 
        0.01666667)
        (0.22651934 0.27071823 0.12707182 0.08287293 0.22099448 
        0.07182320)
        (0.24615385 0.13333333 0.04615385 0.00512821 0.35384615 
        0.21538462)
        (0.20603015 0.16582915 0.03517588 0.04522613 0.20603015 
        0.34170854));
}

potential (f10 | f0)
{
    data = ((0.43930041 0.11213992 0.42078189 0.01954733 0.00720165 
        0.00102881)
        (0.34722222 0.34722222 0.26388889 0.02777778 0.00694444 
        0.00694444)
        (0.51666667 0.12500000 0.32500000 0.00833333 0.00833333 
        0.01666667)
        (0.16022099 0.04972376 0.27624309 0.30939227 0.10497238 
        0.09944751)
        (0.34778912 0.13350340 0.46513605 0.03656463 0.01615646 
        0.00085034)
        (0.00502513 0.04020101 0.08542714 0.12060302 0.09045226 
        0.65829146));
}

potential (f11 | f0)
{
    data = ((0.42078189 0.50720165 0.00102881 0.06275720 0.00720165 
        0.00102881)
        (0.02183908 0.74597701 0.15977011 0.07011494 0.00114943 
        0.00114943)
        (0.38980716 0.56336088 0.00137741 0.04269972 0.00137741 
        0.00137741)
        (0.33149171 0.02762431 0.00552486 0.28176796 0.23204420 
        0.12154696)
        (0.50085034 0.35799320 0.05187075 0.08248299 0.00595238 
        0.00085034)
        (0.02512563 0.00502513 0.03517588 0.02010050 0.05527638 
        0.85929648));
}

potential (f12 | f0)
{
    data = ((0.00102881 0.01954733 0.01954733 0.30349794 0.34053498 
        0.31584362)
        (0.03472222 0.07638889 0.25694444 0.54861111 0.06944444 
        0.01388889)
        (0.00137741 0.01790634 0.05096419 0.58815427 0.28236915 
        0.05922865)
        (0.16574586 0.02762431 0.08839779 0.27624309 0.09392265 
        0.34806630)
        (0.00085034 0.00085034 0.04166667 0.22023810 0.21513605 
        0.52125850)
        (0.98083333 0.00583333 0.00083333 0.01083333 0.00083333 
        0.00083333));
}

potential (f13 | f0)
{
    data = ((0.42857143 0.30434783 0.12422360 0.03105590 0.00621118 
        0.10559006)
        (0.22916667 0.30555556 0.19444444 0.19444444 0.04861111 
        0.02777778)
        (0.33333333 0.22500000 0.21666667 0.14166667 0.03333333 
        0.05000000)
        (0.39226519 0.09944751 0.04419890 0.02762431 0.02762431 
        0.40883978)
        (0.22564103 0.26153846 0.17435897 0.12307692 0.11794872 
        0.09743590)
        (0.40703518 0.15577889 0.07537688 0.08040201 0.03517588 
        0.24623116));
}

potential (f14 | f0)
{
    data = ((0.44099379 0.14285714 0.21739130 0.05590062 0.14285714)
        (0.34722222 0.13888889 0.23611111 0.10416667 0.17361111)
        (0.39166667 0.23333333 0.15000000 0.05833333 0.16666667)
        (0.71270718 0.18232044 0.04419890 0.04972376 0.01104972)
        (0.34358974 0.15384615 0.19487179 0.08717949 0.22051282)
        (0.64321608 0.14070352 0.06532663 0.08040201 0.07035176));
}

potential (f15 | f0)
{
    data = ((0.52173913 0.30434783 0.01863354 0.02484472 0.12422360 
        0.00621118)
        (0.14583333 0.10416667 0.11805556 0.11805556 0.48611111 
        0.02777778)
        (0.15833333 0.00833333 0.03333333 0.20833333 0.58333333 
        0.00833333)
        (0.64377289 0.06135531 0.14377289 0.01190476 0.00091575 
        0.13827839)
        (0.68962585 0.07227891 0.07738095 0.02636054 0.00085034 
        0.13350340)
        (0.55778894 0.04522613 0.07537688 0.13567839 0.00502513 
        0.18090452));
}

potential (f16 | f0)
{
    data = ((0.00102881 0.00102881 0.01954733 0.29732510 0.50102881 
        0.18004115)
        (0.01388889 0.00694444 0.07638889 0.51388889 0.35416667 
        0.03472222)
        (0.00137741 0.00137741 0.02617080 0.47245179 0.45592287 
        0.04269972)
        (0.98992674 0.00091575 0.00641026 0.00091575 0.00091575 
        0.00091575)
        (0.99574830 0.00085034 0.00085034 0.00085034 0.00085034 
        0.00085034)
        (0.97083333 0.00083333 0.02083333 0.00083333 0.00583333 
        0.00083333));
}

potential (f17 | f0)
{
    data = ((0.21739130 0.16149068 0.12422360 0.19254658 0.15527950 
        0.14906832)
        (0.10416667 0.09027778 0.20833333 0.27083333 0.09027778 
        0.23611111)
        (0.03333333 0.03333333 0.12500000 0.19166667 0.14166667 
        0.47500000)
        (0.73168498 0.03388278 0.01190476 0.18772894 0.03388278 
        0.00091575)
        (0.45128205 0.06153846 0.06666667 0.18974359 0.16410256 
        0.06666667)
        (0.63583333 0.03583333 0.00083333 0.24083333 0.07083333 
        0.01583333));
}

potential (f18 | f0 f16)
{
    data = (((0.16666667 0.16666667 0.16666667 0.16666667 0.16666667 
        0.16666667)
        (0.16666667 0.16666667 0.16666667 0.16666667 0.16666667 
        0.16666667)
        (0.54166667 0.29166667 0.04166667 0.04166667 0.04166667 
        0.04166667)
        (0.45238095 0.26870748 0.10544218 0.16666667 0.00340136 
        0.00340136)
        (0.44105691 0.24593496 0.06300813 0.22154472 0.02642276 
        0.00203252)
        (0.43888889 0.40555556 0.07222222 0.03888889 0.03888889 
        0.00555556))
        ((0.38888889 0.05555556 0.05555556 0.38888889 0.05555556 
        0.05555556)
        (0.08333333 0.08333333 0.08333333 0.58333333 0.08333333 
        0.08333333)
        (0.18055556 0.18055556 0.09722222 0.43055556 0.09722222 
        0.01388889)
        (0.00222222 0.09555556 0.16222222 0.66888889 0.05555556 
        0.01555556)
        (0.11764706 0.19607843 0.11764706 0.50980392 0.01960784 
        0.03921569)
        (0.02777778 0.19444444 0.19444444 0.36111111 0.19444444 
        0.02777778))
        ((0.16666667 0.16666667 0.16666667 0.16666667 0.16666667 
        0.16666667)
        (0.16666667 0.16666667 0.16666667 0.16666667 0.16666667 
        0.16666667)
        (0.29166667 0.04166667 0.29166667 0.29166667 0.04166667 
        0.04166667)
        (0.60632184 0.15804598 0.08908046 0.14080460 0.00287356 
        0.00287356)
        (0.53869048 0.25297619 0.07440476 0.12797619 0.00297619 
        0.00297619)
        (0.36111111 0.36111111 0.02777778 0.19444444 0.02777778 
        0.02777778))
        ((0.00092081 0.00092081 0.00092081 0.00092081 0.00092081 
        0.99539595)
        (0.16666667 0.16666667 0.16666667 0.16666667 0.16666667 
        0.16666667)
        (0.08333333 0.08333333 0.08333333 0.08333333 0.08333333 
        0.58333333)
        (0.16666667 0.16666667 0.16666667 0.16666667 0.16666667 
        0.16666667)
        (0.16666667 0.16666667 0.16666667 0.16666667 0.16666667 
        0.16666667)
        (0.16666667 0.16666667 0.16666667 0.16666667 0.16666667 
        0.16666667))
        ((0.00085034 0.00085034 0.00085034 0.00595238 0.00085034 
        0.99064626)
        (0.16666667 0.16666667 0.16666667 0.16666667 0.16666667 
        0.16666667)
        (0.16666667 0.16666667 0.16666667 0.16666667 0.16666667 
        0.16666667)
        (0.16666667 0.16666667 0.16666667 0.16666667 0.16666667 
        0.16666667)
        (0.16666667 0.16666667 0.16666667 0.16666667 0.16666667 
        0.16666667)
        (0.16666667 0.16666667 0.16666667 0.16666667 0.16666667 
        0.16666667))
        ((0.00085470 0.00085470 0.00085470 0.00085470 0.00598291 
        0.99059829)
        (0.16666667 0.16666667 0.16666667 0.16666667 0.16666667 
        0.16666667)
        (0.03333333 0.03333333 0.03333333 0.03333333 0.03333333 
        0.83333333)
        (0.16666667 0.16666667 0.16666667 0.16666667 0.16666667 
        0.16666667)
        (0.08333333 0.08333333 0.08333333 0.08333333 0.08333333 
        0.58333333)
        (0.16666667 0.16666667 0.16666667 0.16666667 0.16666667 
        0.16666667)));
}

potential (f19 | f0)
{
    data = ((0.22981366 0.03105590 0.01863354 0.28571429 0.31677019 
        0.11801242)
        (0.00694444 0.00694444 0.01388889 0.09722222 0.34027778 
        0.53472222)
        (0.13333333 0.02500000 0.10000000 0.05000000 0.07500000 
        0.61666667)
        (0.01190476 0.00641026 0.00091575 0.03937729 0.03937729 
        0.90201465)
        (0.01615646 0.00085034 0.03656463 0.02636054 0.04676871 
        0.87329932)
        (0.03015075 0.01507538 0.01005025 0.01005025 0.04522613 
        0.88944724));
}

potential (f20 | f0)
{
    data = ((0.87757202 0.06275720 0.00102881 0.05658436 0.00102881 
        0.00102881)
        (0.69770115 0.12528736 0.00114943 0.09770115 0.03563218 
        0.04252874)
        (0.80303030 0.00964187 0.00137741 0.17493113 0.00964187 
        0.00137741)
        (0.60220994 0.09944751 0.05524862 0.11049724 0.05524862 
        0.07734807)
        (0.72307692 0.05128205 0.02051282 0.14358974 0.04615385 
        0.01538462)
        (0.50251256 0.22613065 0.13567839 0.05527638 0.02010050 
        0.06030151));
}

potential (f21 | f0)
{
    data = ((0.19254658 0.19875776 0.17391304 0.13043478 0.21118012 
        0.09316770)
        (0.18750000 0.22916667 0.23611111 0.16666667 0.13888889 
        0.04166667)
        (0.11666667 0.22500000 0.25000000 0.28333333 0.10833333 
        0.01666667)
        (0.20441989 0.10497238 0.04419890 0.03314917 0.33701657 
        0.27624309)
        (0.16923077 0.08205128 0.01025641 0.03076923 0.29743590 
        0.41025641)
        (0.16582915 0.10050251 0.09547739 0.04020101 0.37185930 
        0.22613065));
}

potential (f22 | f0)
{
    data = ((0.00102881 0.11213992 0.43312757 0.21090535 0.21707819 
        0.02572016)
        (0.08390805 0.29080460 0.51149425 0.10459770 0.00804598 
        0.00114943)
        (0.00137741 0.10055096 0.26584022 0.31542700 0.23278237 
        0.08402204)
        (0.09392265 0.17127072 0.24861878 0.11602210 0.20441989 
        0.16574586)
        (0.00085034 0.08248299 0.38350340 0.24064626 0.19982993 
        0.09268707)
        (0.00083333 0.00083333 0.00083333 0.00083333 0.00083333 
        0.99583333));
}

potential (f23 | f0)
{
    data = ((0.85288066 0.05041152 0.00102881 0.00102881 0.08127572 
        0.01337449)
        (0.55977011 0.23563218 0.03563218 0.00114943 0.11149425 
        0.05632184)
        (0.74517906 0.07575758 0.00137741 0.00137741 0.14187328 
        0.03443526)
        (0.38674033 0.15469613 0.02762431 0.00552486 0.12154696 
        0.30386740)
        (0.57435897 0.18974359 0.01538462 0.01025641 0.11282051 
        0.09743590)
        (0.41708543 0.14070352 0.02512563 0.00502513 0.13567839 
        0.27638191));
}

potential (f24 | f0)
{
    data = ((0.07453416 0.00621118 0.08074534 0.00621118 0.10559006 
        0.72670807)
        (0.02873563 0.00114943 0.01494253 0.00804598 0.08390805 
        0.86321839)
        (0.01666667 0.03333333 0.13333333 0.00833333 0.07500000 
        0.73333333)
        (0.04419890 0.07734807 0.10497238 0.05524862 0.13259669 
        0.58563536)
        (0.00512821 0.05128205 0.07179487 0.05128205 0.21025641 
        0.61025641)
        (0.02010050 0.08542714 0.08542714 0.03517588 0.03517588 
        0.73869347));
}

potential (f25 | f0)
{
    data = ((0.21739130 0.11180124 0.21739130 0.11801242 0.22360248 
        0.11180124)
        (0.02083333 0.02083333 0.06250000 0.34722222 0.13888889 
        0.40972222)
        (0.02500000 0.03333333 0.05000000 0.31666667 0.20000000 
        0.37500000)
        (0.17673993 0.61080586 0.12728938 0.06684982 0.01739927 
        0.00091575)
        (0.31794872 0.47692308 0.12307692 0.02051282 0.05128205 
        0.01025641)
        (0.18592965 0.60804020 0.05527638 0.03015075 0.04020101 
        0.08040201));
}
