net 
{ 
}
node x178 
{
  states = ( "0" "1" );
}
node x177 
{
  states = ( "0" "1" );
}
node x175 
{
  states = ( "0" "1" );
}
node x161 
{
  states = ( "0" "1" );
}
potential ( x178 ) 
{
  data = ( 0.7560899 0.2439101 );
}
potential ( x177 | x178 ) 
{
  data = ((0.6990913 0.3009087)(0.9993597951 0.0006402049)) ;
}
potential ( x175 | x178 ) 
{
  data = ((0.7569186 0.2430814)(0.6536492 0.3463508)) ;
}
potential ( x161 ) 
{
  data = ( 0.7117427 0.2882573 );
}
